20 -37 52 33 0 0 -18 5 0 -45 -15 -7 0 0
3 0 -20 0 0 0 0 -35 25 0 -72 -27 5 28
29 -51 0 30 0 -16 21 -55 0 0 -18 0 0 -49
0 63 0 -15 -74 0 0 0 0 -41 0 0 0 32
-27 11 0 0 0 0 -72 -63 0 -10 0 0 0 -44
0 74 0 0 0 9 -2 40 0 0 71 -35 0 0
-36 14 28 0 -30 -57 0 -38 0 0 0 0 -88 0
-16 0 -47 0 0 -55 0 0 0 10 74 0 108 0
40 -33 -10 0 0 17 0 67 0 7 -20 11 0 0
35 42 63 0 -13 0 75 0 0 0 0 0 0 8
0 -52 78 27 25 0 -22 49 36 31 63 18 -30 0
-24 -7 0 0 -20 57 -9 0 0 35 5 0 46 -6
0 -30 0 0 -100 0 20 0 0 30 0 22 0 2
16 0 0 74 17 -46 0 -6 0 0 -63 0 -3 0
0 -89 0 0 0 0 0 0 111 14 0 0 0 7
-14 58 0 0 0 38 -127 0 0 61 0 -64 0 0
62 -42 0 0 -34 19 -38 38 0 0 -35 27 34 70
-11 -38 0 -13 0 -33 0 0 -62 0 11 -43 0 0
-52 33 10 0 69 -18 0 0 19 0 23 0 -11 0
12 31 0 62 0 0 -17 0 22 0 0 0 -44 0
25 -72 0 0 -47 0 -17 26 12 30 -22 0 88 0
-39 0 -35 0 -9 -96 0 0 0 18 48 15 -19 0
0 0 12 0 0 0 0 -1 7 -9 -48 24 0 0
0 0 0 0 0 49 0 0 0 0 27 0 0 0
0 0 11 0 -5 0 22 0 0 72 43 0 0 0
-27 13 0 0 -22 0 0 -6 0 -9 -115 16 15 -53
42 0 0 -4 0 1 0 -16 0 0 -42 0 0 0
-36 -13 53 0 -24 12 -107 0 45 -81 0 0 0 0
-29 -7 58 0 -24 0 0 24 0 0 -37 -66 3 0
0 51 0 37 38 0 0 14 0 3 0 0 0 0
-18 0 0 0 0 0 16 0 63 0 27 0 0 -32
29 0 -45 0 0 62 -31 32 0 5 -12 0 -5 0
